2.7500 1.4375 0.3750 2.3125 -1.1250 -1.7500 -1.6250 1.9375 2.0625 1.6875 -2.5000 -0.3750 -2.9375 0.5625 1.1250 -0.8125 0.8125 0.8125 -1.6875 -3.2500 -2.1875 1.3750 0.0625 2.1875 1.6250 0.1875 -0.4375 -1.2500 1.1250 0.5000 0.1250 1.5000 -3.2500 -4.2500 -3.8125 -2.3750 2.3750 0.9375 3.6250 -1.6875 -2.8750 0.8750 -2.2500 -1.5000 1.5625 1.4375 0.1875 -4.0000 -0.1875 -1.0625 -1.0625 1.3750 -0.9375 -0.7500 -0.6875 0.8125 -1.2500 -1.9375 1.0625 1.0625 -1.1875 -1.6875 -3.0000 3.1250 -0.9375 -0.2500 1.6875 1.5000 -1.1250 0.6250 -2.4375 0.8750 -0.8750 1.0000 1.5625 0.1875 -0.3750 -1.4375 -1.7500 -1.1875 -0.4375 -1.0625 -0.5625 -2.6250 0.1875 -0.1250 -0.8750 1.1250 -0.3125 -0.5625 1.3125 -1.7500 0.4375 1.8750 1.9375 0.4375 -2.0000 -3.2500 -2.1875 1.3750 0.8125 2.2500 -2.6250 -2.8750 2.8750 1.3125 -1.0000 2.1875 -4.1875 0.8750 0.7500 -0.0625 -0.1250 -1.8125 0.3125 -0.3125 -3.2500 6.9375 -1.5000 -0.1875 -1.4375 1.6250 -1.2500 -0.0625 0.6250 -1.7500 1.8125 1.2500 -0.1875 -1.1875 2.0625 -0.3125 1.3750 1.4375 0.5625 -2.1875 1.6875 2.0000 0.6875 -2.6250 0.2500 -1.6875 -2.8750 1.1875 1.5625 -1.9375 -1.8750 -1.3125 -0.0625 3.5625 1.1250 -2.5000 2.1250 -0.5000 -0.0625 0.1250 -2.2500 0.7500 1.5625 -1.1875 1.1250 -2.3125 2.0000 1.0000 -4.0625 -3.1250 0.1875 -1.6250 -1.0000 -5.9375 0.6250 0.5625 -3.3750 -1.1250 -1.1875 -3.1875 -0.8750 3.1875 -1.3750 0.6875 3.3125 -4.0625 3.1250 -1.5000 0.2500 0.1250 -2.4375 2.3750 0.1250 1.1250 -1.7500 0.2500 -0.5625 -0.2500 1.5000 1.5000 1.5000 -1.0625 -2.9375 2.2500 2.0000 1.1250 1.5000 -1.9375 -2.8125 2.3750 1.0000 1.3125 1.6250 0.3125 0.9375 -0.8750 -2.2500 -0.8750 0.2500 -0.6250 0.3750 2.7500 -0.3125 -3.5000 1.9375 1.2500 -0.4375 -0.6875 -1.6250 2.8125 1.9375 0.2500 -2.8125 -3.1875 1.8750 -2.5000 -4.5625 -3.5000 1.6250 1.5625 -0.1250 -2.5625 1.1875 -3.3750 1.3125 2.5000 -0.9375 -1.6875 0.0000 -1.1250 -0.8125 0.6250 -1.0000 0.5000 -3.0625 2.5625 0.6250 -3.8750 0.0625 1.2500 2.3750 0.3750 -2.3750 -2.3750 2.1875 0.5000 0.1250 2.0000 2.0625 -4.4375 -2.8125 1.3125 2.4375 -4.5000 -0.1250 2.8125 4.9375 1.5625 -0.7500 -3.5000 -1.9375 -2.0000 -2.2500 0.5625 -1.7500 0.3125 0.9375 2.0000 -0.5000 1.9375 2.3750 -1.9375 -1.0625 1.1250 1.7500 -1.3125 -2.6875 0.7500 -1.6250 -0.7500 -2.4375 -4.0625 1.9375 2.0000 -1.2500 -2.8750 2.0625 -2.3750 -1.0000 1.8750 -1.8125 0.7500 -1.7500 0.2500 2.6250 2.2500 -3.6250 0.1250 -2.3125 1.8750 -0.8750 -2.8125 -0.0625 -4.0000 